<?xml version="1.0"?>
<opencv_storage>
<stage5>
  <maxWeakCount>96</maxWeakCount>
  <stageThreshold>-5.0961613655090332e-01</stageThreshold>
  <weakClassifiers>
    <_>
      <internalNodes>
        0 -1 64328 -7.6359552331268787e-03</internalNodes>
      <leafValues>
        -6.4705884456634521e-01 3.4583646059036255e-01</leafValues></_>
    <_>
      <internalNodes>
        0 -1 64573 4.0086922235786915e-03</internalNodes>
      <leafValues>
        -5.5047005414962769e-02 2.9900732636451721e-01</leafValues></_>
    <_>
      <internalNodes>
        0 -1 62389 5.6109307333827019e-03</internalNodes>
      <leafValues>
        -6.9252975285053253e-02 2.2907115519046783e-01</leafValues></_>
    <_>
      <internalNodes>
        0 -1 54696 -2.2968882694840431e-03</internalNodes>
      <leafValues>
        1.0618872195482254e-01 -1.3283646106719971e-01</leafValues></_>
    <_>
      <internalNodes>
        0 -1 2827 -1.1158270761370659e-02</internalNodes>
      <leafValues>
        1.3268595933914185e-01 -1.0340347141027451e-01</leafValues></_>
    <_>
      <internalNodes>
        0 -1 33813 1.2759721837937832e-02</internalNodes>
      <leafValues>
        6.2237032689154148e-03 -4.9640274047851562e-01</leafValues></_>
    <_>
      <internalNodes>
        0 -1 59652 -6.5392639953643084e-04</internalNodes>
      <leafValues>
        1.9635015726089478e-01 -7.9010285437107086e-02</leafValues></_>
    <_>
      <internalNodes>
        0 -1 64764 1.3510012067854404e-03</internalNodes>
      <leafValues>
        -7.8889489173889160e-02 1.9378092885017395e-01</leafValues></_>
    <_>
      <internalNodes>
        0 -1 54480 7.7486457303166389e-03</internalNodes>
      <leafValues>
        -5.7338647544384003e-02 2.6762515306472778e-01</leafValues></_>
    <_>
      <internalNodes>
        0 -1 62357 9.5276311039924622e-03</internalNodes>
      <leafValues>
        -4.6278517693281174e-02 2.7811408042907715e-01</leafValues></_>
    <_>
      <internalNodes>
        0 -1 54163 3.7749342620372772e-02</internalNodes>
      <leafValues>
        -4.9163550138473511e-02 3.3054220676422119e-01</leafValues></_>
    <_>
      <internalNodes>
        0 -1 39595 -5.6685000658035278e-02</internalNodes>
      <leafValues>
        -8.0173659324645996e-01 2.3146837949752808e-02</leafValues></_>
    <_>
      <internalNodes>
        0 -1 33650 -4.3374411761760712e-03</internalNodes>
      <leafValues>
        1.8501463532447815e-01 -8.2260482013225555e-02</leafValues></_>
    <_>
      <internalNodes>
        0 -1 62144 3.5098329186439514e-02</internalNodes>
      <leafValues>
        5.4938532412052155e-02 -2.8417694568634033e-01</leafValues></_>
    <_>
      <internalNodes>
        0 -1 61660 1.4127577655017376e-02</internalNodes>
      <leafValues>
        2.0854163914918900e-02 -5.6616759300231934e-01</leafValues></_>
    <_>
      <internalNodes>
        0 -1 44661 5.9503000229597092e-03</internalNodes>
      <leafValues>
        1.3547011651098728e-02 -8.5810130834579468e-01</leafValues></_>
    <_>
      <internalNodes>
        0 -1 51482 -2.0409833639860153e-02</internalNodes>
      <leafValues>
        -2.6945096254348755e-01 4.8837441951036453e-02</leafValues></_>
    <_>
      <internalNodes>
        0 -1 74971 4.8341797664761543e-03</internalNodes>
      <leafValues>
        2.1526375785470009e-02 -6.3535064458847046e-01</leafValues></_>
    <_>
      <internalNodes>
        0 -1 67494 -9.0585876023396850e-04</internalNodes>
      <leafValues>
        1.4380420744419098e-01 -9.9892534315586090e-02</leafValues></_>
    <_>
      <internalNodes>
        0 -1 32162 9.6708713099360466e-03</internalNodes>
      <leafValues>
        -4.6319026499986649e-02 2.8505918383598328e-01</leafValues></_>
    <_>
      <internalNodes>
        0 -1 60259 -4.0454096160829067e-03</internalNodes>
      <leafValues>
        -5.8638733625411987e-01 2.2232994437217712e-02</leafValues></_>
    <_>
      <internalNodes>
        0 -1 67452 -4.0193097665905952e-03</internalNodes>
      <leafValues>
        -5.6568109989166260e-01 2.2753572091460228e-02</leafValues></_>
    <_>
      <internalNodes>
        0 -1 39339 1.7659685108810663e-03</internalNodes>
      <leafValues>
        -8.0306924879550934e-02 1.8423190712928772e-01</leafValues></_>
    <_>
      <internalNodes>
        0 -1 73338 -1.1031983420252800e-02</internalNodes>
      <leafValues>
        3.4189519286155701e-01 -3.8423169404268265e-02</leafValues></_>
    <_>
      <internalNodes>
        0 -1 77599 1.6584082040935755e-03</internalNodes>
      <leafValues>
        -5.0260324031114578e-02 3.0015859007835388e-01</leafValues></_>
    <_>
      <internalNodes>
        0 -1 61064 -1.0734611190855503e-02</internalNodes>
      <leafValues>
        -7.5726211071014404e-01 2.0114928483963013e-02</leafValues></_>
    <_>
      <internalNodes>
        0 -1 42900 -4.6584913507103920e-03</internalNodes>
      <leafValues>
        -5.8106964826583862e-01 2.0539889112114906e-02</leafValues></_>
    <_>
      <internalNodes>
        0 -1 71344 -6.1888981610536575e-02</internalNodes>
      <leafValues>
        6.8954747915267944e-01 -2.0395763218402863e-02</leafValues></_>
    <_>
      <internalNodes>
        0 -1 47269 1.7930608242750168e-02</internalNodes>
      <leafValues>
        2.7850389480590820e-02 -5.3995972871780396e-01</leafValues></_>
    <_>
      <internalNodes>
        0 -1 22377 1.0734315961599350e-02</internalNodes>
      <leafValues>
        -2.7593486011028290e-02 5.1472866535186768e-01</leafValues></_>
    <_>
      <internalNodes>
        0 -1 71203 -1.7951370682567358e-03</internalNodes>
      <leafValues>
        1.5829724073410034e-01 -7.8490808606147766e-02</leafValues></_>
    <_>
      <internalNodes>
        0 -1 45521 1.5447180718183517e-02</internalNodes>
      <leafValues>
        -5.6698068976402283e-02 2.5993660092353821e-01</leafValues></_>
    <_>
      <internalNodes>
        0 -1 55374 2.0351638086140156e-03</internalNodes>
      <leafValues>
        5.1742859184741974e-02 -2.8601983189582825e-01</leafValues></_>
    <_>
      <internalNodes>
        0 -1 45229 -1.0275800712406635e-02</internalNodes>
      <leafValues>
        1.8472549319267273e-01 -8.9502505958080292e-02</leafValues></_>
    <_>
      <internalNodes>
        0 -1 57001 3.0051734298467636e-02</internalNodes>
      <leafValues>
        2.6508703827857971e-02 -5.8533734083175659e-01</leafValues></_>
    <_>
      <internalNodes>
        0 -1 61563 -5.9123281389474869e-03</internalNodes>
      <leafValues>
        2.5287190079689026e-01 -6.3767418265342712e-02</leafValues></_>
    <_>
      <internalNodes>
        0 -1 64933 2.7047954499721527e-03</internalNodes>
      <leafValues>
        -6.6014133393764496e-02 2.3402979969978333e-01</leafValues></_>
    <_>
      <internalNodes>
        0 -1 57816 7.2054535849019885e-04</internalNodes>
      <leafValues>
        -1.0835057497024536e-01 1.6485473513603210e-01</leafValues></_>
    <_>
      <internalNodes>
        0 -1 58394 -3.8317076396197081e-03</internalNodes>
      <leafValues>
        1.8207797408103943e-01 -8.0237828195095062e-02</leafValues></_>
    <_>
      <internalNodes>
        0 -1 72218 5.8901910670101643e-03</internalNodes>
      <leafValues>
        4.8708364367485046e-02 -2.6729789376258850e-01</leafValues></_>
    <_>
      <internalNodes>
        0 -1 71759 -1.7203195020556450e-02</internalNodes>
      <leafValues>
        3.1383618712425232e-01 -4.1994053870439529e-02</leafValues></_>
    <_>
      <internalNodes>
        0 -1 75672 -4.6221469528973103e-03</internalNodes>
      <leafValues>
        -1.2448866665363312e-01 1.0610640794038773e-01</leafValues></_>
    <_>
      <internalNodes>
        0 -1 70213 2.1559374406933784e-02</internalNodes>
      <leafValues>
        -7.8203164041042328e-02 1.9373725354671478e-01</leafValues></_>
    <_>
      <internalNodes>
        0 -1 46544 1.7354569863528013e-03</internalNodes>
      <leafValues>
        -9.4129681587219238e-02 1.4657600224018097e-01</leafValues></_>
    <_>
      <internalNodes>
        0 -1 70570 -6.9425147958099842e-03</internalNodes>
      <leafValues>
        -7.3209708929061890e-01 1.9076142460107803e-02</leafValues></_>
    <_>
      <internalNodes>
        0 -1 40865 8.6672157049179077e-03</internalNodes>
      <leafValues>
        3.4692775458097458e-02 -3.6703073978424072e-01</leafValues></_>
    <_>
      <internalNodes>
        0 -1 70737 -5.8713279664516449e-02</internalNodes>
      <leafValues>
        6.6614270210266113e-01 -2.1118005737662315e-02</leafValues></_>
    <_>
      <internalNodes>
        0 -1 54471 -2.3752607405185699e-02</internalNodes>
      <leafValues>
        -4.2702084779739380e-01 3.6224070936441422e-02</leafValues></_>
    <_>
      <internalNodes>
        0 -1 37841 -9.1213628184050322e-04</internalNodes>
      <leafValues>
        1.5266978740692139e-01 -8.8592708110809326e-02</leafValues></_>
    <_>
      <internalNodes>
        0 -1 70146 -7.8842323273420334e-03</internalNodes>
      <leafValues>
        -4.8541903495788574e-01 2.7766944840550423e-02</leafValues></_>
    <_>
      <internalNodes>
        0 -1 48056 -9.0242270380258560e-03</internalNodes>
      <leafValues>
        -1.9012866914272308e-01 7.0564374327659607e-02</leafValues></_>
    <_>
      <internalNodes>
        0 -1 53938 1.7638076096773148e-02</internalNodes>
      <leafValues>
        7.8003607690334320e-02 -2.0589761435985565e-01</leafValues></_>
    <_>
      <internalNodes>
        0 -1 73382 -3.4925088402815163e-04</internalNodes>
      <leafValues>
        1.4282448589801788e-01 -9.8317600786685944e-02</leafValues></_>
    <_>
      <internalNodes>
        0 -1 68539 1.7935649957507849e-03</internalNodes>
      <leafValues>
        -6.7677721381187439e-02 1.9179613888263702e-01</leafValues></_>
    <_>
      <internalNodes>
        0 -1 53705 -1.0600574314594269e-03</internalNodes>
      <leafValues>
        1.1388024687767029e-01 -1.2335320562124252e-01</leafValues></_>
    <_>
      <internalNodes>
        0 -1 52979 1.1234346777200699e-02</internalNodes>
      <leafValues>
        -3.4539654850959778e-02 4.5831668376922607e-01</leafValues></_>
    <_>
      <internalNodes>
        0 -1 71175 -3.6568476352840662e-03</internalNodes>
      <leafValues>
        -4.6419748663902283e-01 3.2908588647842407e-02</leafValues></_>
    <_>
      <internalNodes>
        0 -1 73315 -2.7804514393210411e-03</internalNodes>
      <leafValues>
        1.9443909823894501e-01 -6.9125376641750336e-02</leafValues></_>
    <_>
      <internalNodes>
        0 -1 73421 -9.5994099974632263e-03</internalNodes>
      <leafValues>
        -3.7257874011993408e-01 3.7367124110460281e-02</leafValues></_>
    <_>
      <internalNodes>
        0 -1 14134 -1.4941282570362091e-02</internalNodes>
      <leafValues>
        4.6065878868103027e-01 -3.0806295573711395e-02</leafValues></_>
    <_>
      <internalNodes>
        0 -1 39158 -2.5789849460124969e-03</internalNodes>
      <leafValues>
        1.5879040956497192e-01 -8.5170723497867584e-02</leafValues></_>
    <_>
      <internalNodes>
        0 -1 21171 -3.0875742435455322e-02</internalNodes>
      <leafValues>
        -4.0446752309799194e-01 3.5035163164138794e-02</leafValues></_>
    <_>
      <internalNodes>
        0 -1 44067 -4.5395945198833942e-04</internalNodes>
      <leafValues>
        1.2983404099941254e-01 -9.7865894436836243e-02</leafValues></_>
    <_>
      <internalNodes>
        0 -1 33120 -1.4208945445716381e-02</internalNodes>
      <leafValues>
        -3.8839635252952576e-01 4.1053038090467453e-02</leafValues></_>
    <_>
      <internalNodes>
        0 -1 68901 -1.0408072732388973e-02</internalNodes>
      <leafValues>
        3.8433849811553955e-01 -3.5079196095466614e-02</leafValues></_>
    <_>
      <internalNodes>
        0 -1 56912 -6.1390129849314690e-04</internalNodes>
      <leafValues>
        1.4264583587646484e-01 -9.3783579766750336e-02</leafValues></_>
    <_>
      <internalNodes>
        0 -1 64732 4.0471082320436835e-04</internalNodes>
      <leafValues>
        -9.3356236815452576e-02 1.4360980689525604e-01</leafValues></_>
    <_>
      <internalNodes>
        0 -1 28210 1.0266405344009399e-01</internalNodes>
      <leafValues>
        -9.6911704167723656e-03 9.3682420253753662e-01</leafValues></_>
    <_>
      <internalNodes>
        0 -1 68094 4.8224776983261108e-02</internalNodes>
      <leafValues>
        -1.5354551374912262e-02 6.7878711223602295e-01</leafValues></_>
    <_>
      <internalNodes>
        0 -1 36330 1.0152239352464676e-02</internalNodes>
      <leafValues>
        -5.3459297865629196e-02 2.3644597828388214e-01</leafValues></_>
    <_>
      <internalNodes>
        0 -1 45031 -2.9653240926563740e-03</internalNodes>
      <leafValues>
        -2.1491900086402893e-01 6.3423879444599152e-02</leafValues></_>
    <_>
      <internalNodes>
        0 -1 36809 -1.2831031344830990e-03</internalNodes>
      <leafValues>
        1.4246273040771484e-01 -9.8890721797943115e-02</leafValues></_>
    <_>
      <internalNodes>
        0 -1 34739 -6.5648090839385986e-01</internalNodes>
      <leafValues>
        7.5676196813583374e-01 -1.5670893713831902e-02</leafValues></_>
    <_>
      <internalNodes>
        0 -1 13677 3.6119833588600159e-02</internalNodes>
      <leafValues>
        -3.1414061784744263e-02 3.8806208968162537e-01</leafValues></_>
    <_>
      <internalNodes>
        0 -1 20327 -2.1549537777900696e-03</internalNodes>
      <leafValues>
        1.8192742764949799e-01 -7.4941039085388184e-02</leafValues></_>
    <_>
      <internalNodes>
        0 -1 14761 -2.5764543563127518e-02</internalNodes>
      <leafValues>
        3.4928271174430847e-01 -4.0005147457122803e-02</leafValues></_>
    <_>
      <internalNodes>
        0 -1 62383 2.0181991159915924e-02</internalNodes>
      <leafValues>
        5.0132367759943008e-02 -2.7348589897155762e-01</leafValues></_>
    <_>
      <internalNodes>
        0 -1 14967 3.8419187068939209e-02</internalNodes>
      <leafValues>
        -1.7071252688765526e-02 7.8555071353912354e-01</leafValues></_>
    <_>
      <internalNodes>
        0 -1 27040 1.8316096393391490e-03</internalNodes>
      <leafValues>
        -7.0523969829082489e-02 1.8290551006793976e-01</leafValues></_>
    <_>
      <internalNodes>
        0 -1 44194 -4.9418438225984573e-02</internalNodes>
      <leafValues>
        -3.3622518181800842e-01 4.2627688497304916e-02</leafValues></_>
    <_>
      <internalNodes>
        0 -1 39730 -6.6498667001724243e-03</internalNodes>
      <leafValues>
        -3.3813929557800293e-01 3.7964433431625366e-02</leafValues></_>
    <_>
      <internalNodes>
        0 -1 66868 1.4414744451642036e-02</internalNodes>
      <leafValues>
        -7.3227472603321075e-02 1.8906959891319275e-01</leafValues></_>
    <_>
      <internalNodes>
        0 -1 3945 6.0465209186077118e-02</internalNodes>
      <leafValues>
        -3.2215986400842667e-02 3.9542806148529053e-01</leafValues></_>
    <_>
      <internalNodes>
        0 -1 34263 -2.2635646164417267e-02</internalNodes>
      <leafValues>
        4.8884934186935425e-01 -2.7013113722205162e-02</leafValues></_>
    <_>
      <internalNodes>
        0 -1 64193 -2.4867826141417027e-03</internalNodes>
      <leafValues>
        2.2180692851543427e-01 -6.3526667654514313e-02</leafValues></_>
    <_>
      <internalNodes>
        0 -1 56952 -4.6127648092806339e-03</internalNodes>
      <leafValues>
        -3.7258949875831604e-01 4.3058816343545914e-02</leafValues></_>
    <_>
      <internalNodes>
        0 -1 49735 1.1594465002417564e-02</internalNodes>
      <leafValues>
        -4.7558195888996124e-02 3.0160954594612122e-01</leafValues></_>
    <_>
      <internalNodes>
        0 -1 54518 5.6870747357606888e-03</internalNodes>
      <leafValues>
        1.6922004520893097e-02 -7.7095991373062134e-01</leafValues></_>
    <_>
      <internalNodes>
        0 -1 53209 -7.3794677155092359e-04</internalNodes>
      <leafValues>
        1.4513485133647919e-01 -9.2340610921382904e-02</leafValues></_>
    <_>
      <internalNodes>
        0 -1 53209 1.0469687404111028e-03</internalNodes>
      <leafValues>
        -8.4229141473770142e-02 1.6863475739955902e-01</leafValues></_>
    <_>
      <internalNodes>
        0 -1 1418 -3.7719857692718506e-01</internalNodes>
      <leafValues>
        2.5083765387535095e-01 -4.9962006509304047e-02</leafValues></_>
    <_>
      <internalNodes>
        0 -1 71302 4.7607496380805969e-03</internalNodes>
      <leafValues>
        -9.7971655428409576e-02 1.4141625165939331e-01</leafValues></_>
    <_>
      <internalNodes>
        0 -1 52250 5.6865759193897247e-02</internalNodes>
      <leafValues>
        -7.0589780807495117e-02 1.8084400892257690e-01</leafValues></_>
    <_>
      <internalNodes>
        0 -1 74367 5.7126707397401333e-03</internalNodes>
      <leafValues>
        3.8094934076070786e-02 -3.8652366399765015e-01</leafValues></_>
    <_>
      <internalNodes>
        0 -1 62440 4.2488310486078262e-02</internalNodes>
      <leafValues>
        1.5659293159842491e-02 -8.0817162990570068e-01</leafValues></_>
    <_>
      <internalNodes>
        0 -1 7446 3.6501660360954702e-04</internalNodes>
      <leafValues>
        9.0550124645233154e-02 -1.4522501826286316e-01</leafValues></_></weakClassifiers></stage5>
</opencv_storage>
